{
    "W1": [
        [
            3.001323305395012,
            0.480532982696224,
            0.18348318783369288,
            -1.088583732440646,
            -1.6072024439053947,
            1.9269732200080647,
            1.1834265063660416,
            0.24231196604256014,
            0.18079290185373909,
            -1.0851407845071883
        ],
        [
            0.05841340384337592,
            0.021265344287752952,
            0.009907478446808409,
            -0.01817144404445464,
            -0.02796321304275031,
            0.03995154069060039,
            0.0352411931717199,
            0.003257810917236674,
            0.005873355994835441,
            -0.0288607619517194
        ],
        [
            -2.912945458703005,
            -0.48951327357982244,
            -0.14741992128387382,
            1.1480949704684178,
            1.6878892410952382,
            -1.9738826543812495,
            -1.1965424834104998,
            -0.23820185137879354,
            -0.13356315188771906,
            1.1382553348508018
        ],
        [
            1.8656535809826986,
            0.3179711089706915,
            0.10356750849550823,
            -0.7220984717135318,
            -1.0626028517859865,
            1.247648290034296,
            0.7643022861288548,
            0.1648352798872444,
            0.10598617802953185,
            -0.7209914980855062
        ],
        [
            -0.7467276692475301,
            -0.14763784803996494,
            -0.05030260861836688,
            0.33062956001687627,
            0.449270144574135,
            -0.5258352560627492,
            -0.3260611980298469,
            -0.05377888763905072,
            -0.041269017859720994,
            0.3039359349281169
        ]
    ],
    "W2": [
        [
            -3.4504089170687866,
            3.4474639470618462
        ],
        [
            -0.5623021081648062,
            0.5525074086567013
        ],
        [
            -0.185352402363162,
            0.18766957099440854
        ],
        [
            1.2788762490631815,
            -1.2767395233879184
        ],
        [
            1.8835454321080427,
            -1.889319181388484
        ],
        [
            -2.2400932695485336,
            2.2341171313482566
        ],
        [
            -1.3579917946986546,
            1.3432865836183
        ],
        [
            -0.278844308365931,
            0.2775451246706167
        ],
        [
            -0.16892717096057333,
            0.16216695012948454
        ],
        [
            1.263754299618856,
            -1.2687074392907953
        ]
    ],
    "b1": [
        [
            -2.628428326077736,
            -0.3241300752030283,
            -0.036083484321073875,
            0.9052571448750537,
            1.37925647870946,
            -1.6649042456623853,
            -1.001845800906477,
            -0.04872301082281826,
            -0.24090135616604655,
            0.9115764275797154
        ]
    ],
    "b2": [
        [
            0.5223644246337006,
            -0.5223644246337038
        ]
    ]
}