{
    "W1": [
        [
            0.05199893047748857,
            0.1468202834543713,
            0.06583030583044736,
            -0.7244399227383355,
            0.21194944808188046,
            0.07991083802086277,
            0.10555697758546213,
            -0.09355980567537818,
            0.4495476450449762,
            0.03474893791114535,
            0.05146325777458314,
            0.06440534364880982,
            -1.6602105970268357,
            0.06720183361886084,
            -2.2860541022950964,
            -1.3743941592100524,
            0.04726037667806789,
            0.03845575348883943,
            0.14294727826777814,
            0.0865307146181136,
            -0.032421260697249765,
            -0.08196174548090923,
            7.199405588825063,
            -0.06422538813229405,
            0.09550731419455673,
            0.09134701894972923,
            1.3195534079568336,
            -0.0784986452639845,
            0.1682510284387523,
            0.07217547698779568,
            0.06880685444795076,
            0.06647565716439159,
            0.4465923517455479,
            -0.022506731254969953,
            0.6724294053557038,
            -0.14235537193617845,
            0.10897918067667757,
            0.08737101457491116,
            0.09246523980902693,
            -0.10718806531918186
        ],
        [
            -0.012773652529524941,
            -0.02622972958787946,
            -0.01725230551513005,
            -0.035593999983615766,
            -0.020948008652642836,
            -0.01062799643760136,
            -0.014121678841561573,
            0.012940449089502233,
            0.038444413697889625,
            -0.007349092616444496,
            -0.011238992527280398,
            -0.0028137228736485344,
            -0.07616470516043335,
            -0.016637422586558377,
            1.543240024418092,
            -0.004728744147608699,
            -0.008261574114619452,
            0.0010038572579897506,
            -0.011706497231371304,
            5.696657363492609e-05,
            -0.0003262569395796663,
            0.004615430236920799,
            -1.1922673093033367,
            -0.008767971329697827,
            -0.007558218462755719,
            -0.021341771071443694,
            -0.0002911239026924438,
            0.010747775406497517,
            -0.025584978907317632,
            -0.006262600539503731,
            -0.0005246336177080002,
            -0.005225824863039225,
            0.05763417476384112,
            -0.011787156128016911,
            0.05254593010065144,
            -0.008265676282839906,
            -0.012586798172267898,
            -0.01158867238333779,
            -0.0095275327696418,
            0.019631521647865052
        ],
        [
            0.024624742826119747,
            0.12449899643983144,
            0.08179281139632831,
            0.23135210003484397,
            0.16765196582277272,
            0.0831484516187696,
            0.04256135043639735,
            -0.06455652654035172,
            -0.24033664724495823,
            0.05200902939093942,
            -0.008695045411100385,
            0.07930990760022359,
            2.5397292695599516,
            0.07098842981003388,
            -0.8035474296904361,
            0.10127575636404267,
            0.0728382944013741,
            0.07566076936284892,
            0.22430484326832897,
            -0.027435812660905903,
            -0.03529827579930753,
            -0.08330586274939597,
            -13.425370888938122,
            -0.1972535702875691,
            0.0662122337104968,
            0.18362066554177675,
            -0.12632874349822634,
            -0.06880851628510894,
            0.18810403633256045,
            0.07597965590392389,
            0.09616294698771614,
            0.06879594644152652,
            -0.22247457514877977,
            0.006415551794768258,
            -0.2377280749189738,
            0.025132857430408488,
            0.053392592698304285,
            0.04538816775702095,
            0.07161458557795658,
            -0.22460111852693967
        ],
        [
            -0.004069022226195262,
            -0.004659437372663393,
            -0.057356924211807506,
            -0.3149260132662365,
            0.007730466018680459,
            0.0032709113603212963,
            0.0038746118160897544,
            0.011363408548639833,
            0.20817173866768657,
            -0.10976426691763765,
            -0.051034418936212855,
            0.0028592575710238923,
            -30.674202929360447,
            0.003478242431077058,
            -4.450442482120808,
            -0.7903674387979336,
            -0.06372944367182751,
            -0.0633308062291051,
            -0.1319285446901186,
            0.06067157103207585,
            0.004038503798668265,
            -0.0011179228959995735,
            17.69228818234913,
            0.20222493085169432,
            0.024168634118714526,
            0.005463061462428106,
            0.7384968160336915,
            0.005718246299468059,
            -0.004261677781670744,
            -0.005746140535114221,
            0.0036059907077447277,
            0.01945314390936817,
            0.17168742709121212,
            0.04368634032067391,
            0.29060109059064126,
            -0.11995067050425057,
            0.014662044025168842,
            -0.007828664499964536,
            -0.005092682690967229,
            0.027265281251979294
        ],
        [
            0.0158710831233449,
            0.06857052895686923,
            0.1362209612063602,
            -0.26569070671555123,
            0.04710488220180115,
            0.03692032007466516,
            0.034397848162813695,
            -0.044220750021574294,
            0.24285779417846867,
            0.18681229503767133,
            0.12533296810361497,
            0.019691670164981526,
            2.7098697090923194,
            0.013927030739918442,
            29.857957042904964,
            -0.1276015633594972,
            0.11136774353607005,
            0.1036848687686248,
            0.15170636654063482,
            -0.00474709617016488,
            -0.012497637590322058,
            -0.040165474832371977,
            -4.130649714745882,
            -0.260748794271383,
            0.02537705788822602,
            0.004456434692324496,
            0.15176722295789713,
            -0.02437732835786374,
            0.032959657338482204,
            0.03567108967232201,
            0.0034819571966033984,
            0.021744209166023223,
            0.1877492264417539,
            -0.119420451629883,
            0.256560783406115,
            0.0062243972862700905,
            0.04383157521486735,
            0.039714119605703584,
            0.05039452045840672,
            -0.021724704453782044
        ]
    ],
    "W2": [
        [
            -0.07011039944504999,
            0.068348385504908
        ],
        [
            -0.0815060603331605,
            0.08658722604422271
        ],
        [
            0.0011821447114767486,
            -0.004010420552806357
        ],
        [
            0.036106177866006964,
            -0.03831348935379059
        ],
        [
            -0.04911587732144396,
            0.0496421822968528
        ],
        [
            -0.05464722909005493,
            0.05820100724234564
        ],
        [
            0.03381800443619594,
            -0.03289174746940664
        ],
        [
            0.04784866144903431,
            -0.05177043869621806
        ],
        [
            -0.027608529510357763,
            0.02865703643195436
        ],
        [
            0.11522952404544778,
            -0.10881032190097473
        ],
        [
            0.10267750840462773,
            -0.10644707804545257
        ],
        [
            -0.11258360240217574,
            0.11263538767591753
        ],
        [
            3.8649471829424438,
            -3.8692252047616313
        ],
        [
            -0.09294356899057223,
            0.09406896629102518
        ],
        [
            -5.464660172060395,
            5.462241843236861
        ],
        [
            0.06523380208239354,
            -0.07078534350305729
        ],
        [
            0.04007888256360012,
            -0.04044604953833578
        ],
        [
            -0.02796323006003193,
            0.026877508825590438
        ],
        [
            -0.021841725622617505,
            0.020175434414432744
        ],
        [
            0.046236115311719075,
            -0.04304203095521324
        ],
        [
            0.008273792730093599,
            -0.011269665540456025
        ],
        [
            0.0882522245075403,
            -0.08949918100238857
        ],
        [
            -2.7914763749741263,
            2.7857290018426695
        ],
        [
            0.06013547374325166,
            -0.053673135226641494
        ],
        [
            0.02453774428841611,
            -0.031138593124328276
        ],
        [
            -0.14674013031051644,
            0.14658168629101348
        ],
        [
            -0.0646604647556975,
            0.06414689641678557
        ],
        [
            0.09139494993568982,
            -0.08738112300089981
        ],
        [
            -0.07728458197846669,
            0.07117834254643707
        ],
        [
            -0.10999507316642278,
            0.10717914755826323
        ],
        [
            -0.10506989473463214,
            0.10016027352944475
        ],
        [
            -0.1131961082836193,
            0.11131735179393026
        ],
        [
            -0.028308677657848603,
            0.023249001779471208
        ],
        [
            -0.04826824427428765,
            0.05004112194732789
        ],
        [
            -0.035794526355885654,
            0.03517640375520627
        ],
        [
            0.051491638795682054,
            -0.05836395193554246
        ],
        [
            0.05976698558465307,
            -0.05297441340223684
        ],
        [
            -0.11121196114065524,
            0.10819103428701174
        ],
        [
            -0.047957515499870346,
            0.0490509196425009
        ],
        [
            0.11671259187283822,
            -0.11661470380673371
        ]
    ],
    "b1": [
        [
            4.581939474831498,
            11.825039942053948,
            7.154741565536612,
            0.8653170068738276,
            15.695980376799502,
            7.073506670474945,
            7.216261502787734,
            -7.23250997629011,
            -0.5504364580258666,
            7.976144066492464,
            5.632556687407014,
            5.220963687651265,
            3.8997992650696816,
            5.691227898081274,
            3.6930399797042957,
            1.6773480163278844,
            6.028950292754066,
            6.794880538249884,
            15.482111650352278,
            -3.6940003187989032,
            -4.295911286135921,
            -7.1284338373547325,
            -8.197193074502215,
            -13.419843266186092,
            6.567201320164163,
            9.849093718490527,
            -1.606654112937834,
            -6.286593873173355,
            13.360861713019776,
            5.494595010584962,
            5.9342548280077585,
            5.559719552364779,
            -0.5254970352791303,
            -4.733428438341958,
            -0.8033647072797431,
            3.593672489670177,
            7.530263749292166,
            6.186481356322265,
            7.522096005004337,
            -10.906903746803511
        ]
    ],
    "b2": [
        [
            7.535864388232452,
            -7.535864388232485
        ]
    ]
}