{
    "W1": [
        [
            -0.07107901740396806,
            0.05980092541581885,
            6.074002871029837,
            -0.31874357161616956,
            -0.4160814403876967,
            -2.9545609027730415,
            0.9348157096535117,
            2.1906624729491817,
            -0.5702297115190519,
            2.891540204050083
        ],
        [
            0.0647510762465433,
            -0.8213238197120738,
            -1.8758479860238435,
            0.022511709545888048,
            5.6227808145658695,
            8.021640054890279,
            -1.1246111561333016,
            -1.0491482040702773,
            1.1648445436238557,
            -0.6663840006364992
        ],
        [
            -0.1872041086309838,
            2.845848837121715,
            1.835165654980431,
            -0.11127441164376342,
            -2.74595893286555,
            2.7774245950471705,
            0.5759562313550821,
            0.008846139417804395,
            -0.700169894046003,
            0.03653903935540606
        ],
        [
            -0.06180446955790238,
            4.810415832138713,
            -3.092169155942129,
            -1.476768004617125,
            8.296609649370723,
            4.493263934533945,
            4.4385069896675,
            10.586157019869356,
            -3.1134925161960605,
            15.475045514883686
        ],
        [
            -0.03307607892917983,
            -0.8477763053760797,
            8.953913464699763,
            0.2533477816789854,
            2.939664601499304,
            3.331502398566397,
            -1.2257987885536061,
            -1.8308719035289513,
            0.8705066798381587,
            -1.7180671759933592
        ]
    ],
    "W2": [
        [
            -0.206544475816948,
            0.20359950581001854
        ],
        [
            3.919559464999622,
            -3.9293541645077177
        ],
        [
            -5.005979450951344,
            5.008296619582573
        ],
        [
            -0.1073492833395318,
            0.10948600901479494
        ],
        [
            -3.1641299936403726,
            3.158356244359945
        ],
        [
            -4.2763922257031854,
            4.270416087502921
        ],
        [
            -1.2684900338722729,
            1.2537848227919124
        ],
        [
            -2.8811861969072767,
            2.8798870132119676
        ],
        [
            0.8903394500225262,
            -0.8970996708536139
        ],
        [
            -4.268108790089041,
            4.2631556504170804
        ]
    ],
    "b1": [
        [
            -3.562928575573851,
            -3.2434691747174984,
            -4.673548441893585,
            7.787250103398837,
            0.4585094071947996,
            -2.581205772192499,
            -1.3978753046526315,
            -2.7967081740548174,
            1.0448953194336645,
            -3.604254576373418
        ]
    ],
    "b2": [
        [
            3.504390374843004,
            -3.504390374843024
        ]
    ]
}